digraph Tree {
node [shape=box, style="filled, rounded", color="black", fontname=helvetica] ;
edge [fontname=helvetica] ;
0 [label="17 <= 0.97\ngini = 0.5\nsamples = 100\nvalue = [87, 73]\nclass = -1", fillcolor="#fbebdf"] ;
1 [label="487 <= 218.27\ngini = 0.4\nsamples = 38\nvalue = [16, 42]\nclass = 1", fillcolor="#84c2ef"] ;
0 -> 1 [labeldistance=2.5, labelangle=45, headlabel="True"] ;
2 [label="162 <= 17883.5\ngini = 0.05\nsamples = 27\nvalue = [1, 37]\nclass = 1", fillcolor="#3ea0e6"] ;
1 -> 2 ;
3 [label="gini = 0.0\nsamples = 24\nvalue = [0, 35]\nclass = 1", fillcolor="#399de5"] ;
2 -> 3 ;
4 [label="137 <= 173.0\ngini = 0.44\nsamples = 3\nvalue = [1, 2]\nclass = 1", fillcolor="#9ccef2"] ;
2 -> 4 ;
5 [label="gini = 0.0\nsamples = 2\nvalue = [0, 2]\nclass = 1", fillcolor="#399de5"] ;
4 -> 5 ;
6 [label="gini = 0.0\nsamples = 1\nvalue = [1, 0]\nclass = -1", fillcolor="#e58139"] ;
4 -> 6 ;
7 [label="255 <= 0.35\ngini = 0.38\nsamples = 11\nvalue = [15, 5]\nclass = -1", fillcolor="#eeab7b"] ;
1 -> 7 ;
8 [label="63 <= 16.66\ngini = 0.32\nsamples = 3\nvalue = [1, 4]\nclass = 1", fillcolor="#6ab6ec"] ;
7 -> 8 ;
9 [label="gini = 0.0\nsamples = 2\nvalue = [0, 4]\nclass = 1", fillcolor="#399de5"] ;
8 -> 9 ;
10 [label="gini = 0.0\nsamples = 1\nvalue = [1, 0]\nclass = -1", fillcolor="#e58139"] ;
8 -> 10 ;
11 [label="486 <= 794.6\ngini = 0.12\nsamples = 8\nvalue = [14, 1]\nclass = -1", fillcolor="#e78a47"] ;
7 -> 11 ;
12 [label="gini = 0.0\nsamples = 7\nvalue = [14, 0]\nclass = -1", fillcolor="#e58139"] ;
11 -> 12 ;
13 [label="gini = 0.0\nsamples = 1\nvalue = [0, 1]\nclass = 1", fillcolor="#399de5"] ;
11 -> 13 ;
14 [label="45 <= 145.1\ngini = 0.42\nsamples = 62\nvalue = [71, 31]\nclass = -1", fillcolor="#f0b88f"] ;
0 -> 14 [labeldistance=2.5, labelangle=-45, headlabel="False"] ;
15 [label="208 <= 16.52\ngini = 0.32\nsamples = 54\nvalue = [71, 18]\nclass = -1", fillcolor="#eca16b"] ;
14 -> 15 ;
16 [label="gini = 0.0\nsamples = 2\nvalue = [0, 4]\nclass = 1", fillcolor="#399de5"] ;
15 -> 16 ;
17 [label="439 <= 35.59\ngini = 0.28\nsamples = 52\nvalue = [71, 14]\nclass = -1", fillcolor="#ea9a60"] ;
15 -> 17 ;
18 [label="142 <= 8.8\ngini = 0.38\nsamples = 3\nvalue = [1, 3]\nclass = 1", fillcolor="#7bbeee"] ;
17 -> 18 ;
19 [label="gini = 0.0\nsamples = 2\nvalue = [0, 3]\nclass = 1", fillcolor="#399de5"] ;
18 -> 19 ;
20 [label="gini = 0.0\nsamples = 1\nvalue = [1, 0]\nclass = -1", fillcolor="#e58139"] ;
18 -> 20 ;
21 [label="128 <= 3.47\ngini = 0.23\nsamples = 49\nvalue = [70, 11]\nclass = -1", fillcolor="#e99558"] ;
17 -> 21 ;
22 [label="64 <= 13.46\ngini = 0.2\nsamples = 47\nvalue = [70, 9]\nclass = -1", fillcolor="#e89152"] ;
21 -> 22 ;
23 [label="gini = 0.0\nsamples = 1\nvalue = [0, 1]\nclass = 1", fillcolor="#399de5"] ;
22 -> 23 ;
24 [label="171 <= 0.19\ngini = 0.18\nsamples = 46\nvalue = [70, 8]\nclass = -1", fillcolor="#e88f50"] ;
22 -> 24 ;
25 [label="63 <= 29.19\ngini = 0.13\nsamples = 41\nvalue = [67, 5]\nclass = -1", fillcolor="#e78a48"] ;
24 -> 25 ;
26 [label="153 <= 0.0\ngini = 0.11\nsamples = 40\nvalue = [67, 4]\nclass = -1", fillcolor="#e78945"] ;
25 -> 26 ;
27 [label="gini = 0.0\nsamples = 2\nvalue = [0, 2]\nclass = 1", fillcolor="#399de5"] ;
26 -> 27 ;
28 [label="250 <= 37.41\ngini = 0.06\nsamples = 38\nvalue = [67, 2]\nclass = -1", fillcolor="#e6853f"] ;
26 -> 28 ;
29 [label="gini = 0.0\nsamples = 1\nvalue = [0, 1]\nclass = 1", fillcolor="#399de5"] ;
28 -> 29 ;
30 [label="125 <= 0.81\ngini = 0.03\nsamples = 37\nvalue = [67, 1]\nclass = -1", fillcolor="#e5833c"] ;
28 -> 30 ;
31 [label="gini = 0.0\nsamples = 1\nvalue = [0, 1]\nclass = 1", fillcolor="#399de5"] ;
30 -> 31 ;
32 [label="gini = 0.0\nsamples = 36\nvalue = [67, 0]\nclass = -1", fillcolor="#e58139"] ;
30 -> 32 ;
33 [label="gini = 0.0\nsamples = 1\nvalue = [0, 1]\nclass = 1", fillcolor="#399de5"] ;
25 -> 33 ;
34 [label="487 <= 86.99\ngini = 0.5\nsamples = 5\nvalue = [3, 3]\nclass = -1", fillcolor="#ffffff"] ;
24 -> 34 ;
35 [label="gini = 0.0\nsamples = 2\nvalue = [3, 0]\nclass = -1", fillcolor="#e58139"] ;
34 -> 35 ;
36 [label="gini = 0.0\nsamples = 3\nvalue = [0, 3]\nclass = 1", fillcolor="#399de5"] ;
34 -> 36 ;
37 [label="gini = 0.0\nsamples = 2\nvalue = [0, 2]\nclass = 1", fillcolor="#399de5"] ;
21 -> 37 ;
38 [label="gini = 0.0\nsamples = 8\nvalue = [0, 13]\nclass = 1", fillcolor="#399de5"] ;
14 -> 38 ;
}